digraph Tree {
node [shape=box, style="filled, rounded", color="black", fontname="helvetica"] ;
edge [fontname="helvetica"] ;
0 [label="Sex_male <= 0.5\ngini = 0.47\nsamples = 623\nvalue = [384, 239]\nclass = die", fillcolor="#f5cfb4"] ;
1 [label="Pclass_3 <= 0.5\ngini = 0.39\nsamples = 220\nvalue = [59, 161]\nclass = survived", fillcolor="#82c1ef"] ;
0 -> 1 [labeldistance=2.5, labelangle=45, headlabel="True"] ;
2 [label="Age <= 2.5\ngini = 0.08\nsamples = 115\nvalue = [5, 110]\nclass = survived", fillcolor="#42a1e6"] ;
1 -> 2 ;
3 [label="Pclass_2 <= 0.5\ngini = 0.5\nsamples = 2\nvalue = [1, 1]\nclass = die", fillcolor="#ffffff"] ;
2 -> 3 ;
4 [label="(...)", fillcolor="#C0C0C0"] ;
3 -> 4 ;
5 [label="(...)", fillcolor="#C0C0C0"] ;
3 -> 5 ;
6 [label="Age <= 37.0\ngini = 0.07\nsamples = 113\nvalue = [4, 109]\nclass = survived", fillcolor="#40a1e6"] ;
2 -> 6 ;
7 [label="(...)", fillcolor="#C0C0C0"] ;
6 -> 7 ;
14 [label="(...)", fillcolor="#C0C0C0"] ;
6 -> 14 ;
27 [label="Fare <= 7.89\ngini = 0.5\nsamples = 105\nvalue = [54.0, 51.0]\nclass = die", fillcolor="#fef8f4"] ;
1 -> 27 ;
28 [label="Fare <= 6.99\ngini = 0.34\nsamples = 28\nvalue = [6, 22]\nclass = survived", fillcolor="#6fb8ec"] ;
27 -> 28 ;
29 [label="(...)", fillcolor="#C0C0C0"] ;
28 -> 29 ;
30 [label="(...)", fillcolor="#C0C0C0"] ;
28 -> 30 ;
51 [label="Age <= 5.5\ngini = 0.47\nsamples = 77\nvalue = [48, 29]\nclass = die", fillcolor="#f5cdb1"] ;
27 -> 51 ;
52 [label="(...)", fillcolor="#C0C0C0"] ;
51 -> 52 ;
59 [label="(...)", fillcolor="#C0C0C0"] ;
51 -> 59 ;
100 [label="Age <= 6.5\ngini = 0.31\nsamples = 403\nvalue = [325, 78]\nclass = die", fillcolor="#eb9f69"] ;
0 -> 100 [labeldistance=2.5, labelangle=-45, headlabel="False"] ;
101 [label="SibSp <= 2.5\ngini = 0.42\nsamples = 20\nvalue = [6, 14]\nclass = survived", fillcolor="#8ec7f0"] ;
100 -> 101 ;
102 [label="gini = 0.0\nsamples = 14\nvalue = [0, 14]\nclass = survived", fillcolor="#399de5"] ;
101 -> 102 ;
103 [label="gini = 0.0\nsamples = 6\nvalue = [6, 0]\nclass = die", fillcolor="#e58139"] ;
101 -> 103 ;
104 [label="Fare <= 26.27\ngini = 0.28\nsamples = 383\nvalue = [319, 64]\nclass = die", fillcolor="#ea9a61"] ;
100 -> 104 ;
105 [label="Age <= 10.0\ngini = 0.19\nsamples = 277\nvalue = [248, 29]\nclass = die", fillcolor="#e89050"] ;
104 -> 105 ;
106 [label="(...)", fillcolor="#C0C0C0"] ;
105 -> 106 ;
107 [label="(...)", fillcolor="#C0C0C0"] ;
105 -> 107 ;
220 [label="SibSp <= 2.5\ngini = 0.44\nsamples = 106\nvalue = [71, 35]\nclass = die", fillcolor="#f2bf9b"] ;
104 -> 220 ;
221 [label="(...)", fillcolor="#C0C0C0"] ;
220 -> 221 ;
284 [label="(...)", fillcolor="#C0C0C0"] ;
220 -> 284 ;
}